<?xml version="1.0"?>
<opencv_storage>
<cascade>
  <stageType>BOOST</stageType>
  <featureType>HAAR</featureType>
  <height>46</height>
  <width>38</width>
  <stageParams>
    <boostType>GAB</boostType>
    <minHitRate>9.9500000476837158e-01</minHitRate>
    <maxFalseAlarm>5.0000000000000000e-01</maxFalseAlarm>
    <weightTrimRate>9.4999998807907104e-01</weightTrimRate>
    <maxDepth>1</maxDepth>
    <maxWeakCount>100</maxWeakCount></stageParams>
  <featureParams>
    <maxCatCount>0</maxCatCount>
    <featSize>1</featSize>
    <mode>BASIC</mode></featureParams>
  <stageNum>4</stageNum>
  <stages>
    <!-- stage 0 -->
    <_>
      <maxWeakCount>3</maxWeakCount>
      <stageThreshold>-9.0915244817733765e-01</stageThreshold>
      <weakClassifiers>
        <_>
          <internalNodes>
            0 -1 1 6.7957378923892975e-03</internalNodes>
          <leafValues>
            -8.6792451143264771e-01 9.6765500307083130e-01</leafValues></_>
        <_>
          <internalNodes>
            0 -1 8 2.2577930940315127e-04</internalNodes>
          <leafValues>
            -8.1056720018386841e-01 8.7450855970382690e-01</leafValues></_>
        <_>
          <internalNodes>
            0 -1 5 1.2311357259750366e-01</internalNodes>
          <leafValues>
            7.6933926343917847e-01 -8.5741537809371948e-01</leafValues></_></weakClassifiers></_>
    <!-- stage 1 -->
    <_>
      <maxWeakCount>3</maxWeakCount>
      <stageThreshold>-6.8862438201904297e-01</stageThreshold>
      <weakClassifiers>
        <_>
          <internalNodes>
            0 -1 3 6.1932904645800591e-03</internalNodes>
          <leafValues>
            -9.1365462541580200e-01 8.7841188907623291e-01</leafValues></_>
        <_>
          <internalNodes>
            0 -1 2 3.5354671999812126e-03</internalNodes>
          <leafValues>
            -7.3491084575653076e-01 8.9728134870529175e-01</leafValues></_>
        <_>
          <internalNodes>
            0 -1 6 2.6112990453839302e-03</internalNodes>
          <leafValues>
            -5.9367245435714722e-01 9.5994108915328979e-01</leafValues></_></weakClassifiers></_>
    <!-- stage 2 -->
    <_>
      <maxWeakCount>3</maxWeakCount>
      <stageThreshold>-8.3715093135833740e-01</stageThreshold>
      <weakClassifiers>
        <_>
          <internalNodes>
            0 -1 0 1.9979518838226795e-03</internalNodes>
          <leafValues>
            -8.6940300464630127e-01 1.</leafValues></_>
        <_>
          <internalNodes>
            0 -1 7 1.2923814356327057e-03</internalNodes>
          <leafValues>
            -7.6251858472824097e-01 1.</leafValues></_>
        <_>
          <internalNodes>
            0 -1 9 -7.9739897046238184e-04</internalNodes>
          <leafValues>
            7.9477065801620483e-01 -8.4125661849975586e-01</leafValues></_></weakClassifiers></_>
    <!-- stage 3 -->
    <_>
      <maxWeakCount>1</maxWeakCount>
      <stageThreshold>1.</stageThreshold>
      <weakClassifiers>
        <_>
          <internalNodes>
            0 -1 4 -8.0366380512714386e-02</internalNodes>
          <leafValues>
            -1. 1.</leafValues></_></weakClassifiers></_></stages>
  <features>
    <_>
      <rects>
        <_>
          0 0 4 8 -1.</_>
        <_>
          2 0 2 8 2.</_></rects>
      <tilted>0</tilted></_>
    <_>
      <rects>
        <_>
          0 0 12 10 -1.</_>
        <_>
          0 5 12 5 2.</_></rects>
      <tilted>0</tilted></_>
    <_>
      <rects>
        <_>
          0 31 15 4 -1.</_>
        <_>
          5 31 5 4 3.</_></rects>
      <tilted>0</tilted></_>
    <_>
      <rects>
        <_>
          2 0 7 24 -1.</_>
        <_>
          2 8 7 8 3.</_></rects>
      <tilted>0</tilted></_>
    <_>
      <rects>
        <_>
          5 4 32 38 -1.</_>
        <_>
          5 4 16 19 2.</_>
        <_>
          21 23 16 19 2.</_></rects>
      <tilted>0</tilted></_>
    <_>
      <rects>
        <_>
          10 23 28 23 -1.</_>
        <_>
          24 23 14 23 2.</_></rects>
      <tilted>0</tilted></_>
    <_>
      <rects>
        <_>
          25 10 12 6 -1.</_>
        <_>
          29 10 4 6 3.</_></rects>
      <tilted>0</tilted></_>
    <_>
      <rects>
        <_>
          26 32 12 6 -1.</_>
        <_>
          30 32 4 6 3.</_></rects>
      <tilted>0</tilted></_>
    <_>
      <rects>
        <_>
          29 0 2 10 -1.</_>
        <_>
          29 5 2 5 2.</_></rects>
      <tilted>0</tilted></_>
    <_>
      <rects>
        <_>
          36 39 2 6 -1.</_>
        <_>
          36 42 2 3 2.</_></rects>
      <tilted>0</tilted></_></features></cascade>
</opencv_storage>
